{
  "W1": [
    [
      0.21825990080833435,
      -0.06531292200088501,
      0.22525697946548462,
      0.12476401776075363,
      -0.33542415499687195,
      0.369452565908432,
      0.17324770987033844,
      0.18944735825061798,
      -0.2654710114002228,
      -0.04577968642115593,
      -0.11328218877315521,
      0.3057630956172943
    ],
    [
      0.18186135590076447,
      0.2952943742275238,
      0.025181803852319717,
      -0.15378627181053162,
      0.11612537503242493,
      -0.2742532193660736,
      0.2748059928417206,
      0.13917100429534912,
      0.2021758258342743,
      -0.09344912320375443,
      0.3276435136795044,
      0.25493311882019043
    ],
    [
      0.20370784401893616,
      -0.22599337995052338,
      -0.024632615968585014,
      -0.3369949460029602,
      -0.2554980516433716,
      0.13343223929405212,
      0.18065372109413147,
      0.34518158435821533,
      -0.1304430067539215,
      -0.09699616581201553,
      -0.023338263854384422,
      -0.2293940782546997
    ],
    [
      -0.16139431297779083,
      0.0901547521352768,
      -0.051948901265859604,
      0.22610105574131012,
      0.11328275501728058,
      0.32023170590400696,
      0.2026234269142151,
      -0.05386444926261902,
      0.2934507429599762,
      0.278359055519104,
      -0.08665669709444046,
      -0.15742433071136475
    ],
    [
      0.2775232195854187,
      -0.20889277756214142,
      -0.14956845343112946,
      -0.3135138750076294,
      0.307036429643631,
      0.2267037034034729,
      0.18128767609596252,
      0.2440263330936432,
      0.1512986570596695,
      0.1391192078590393,
      -0.20360907912254333,
      -0.2124468833208084
    ],
    [
      0.12437383085489273,
      -0.021346867084503174,
      0.04818005859851837,
      0.19571462273597717,
      0.09949607402086258,
      0.03957100957632065,
      0.043727386742830276,
      -0.14479245245456696,
      -0.3465139865875244,
      -0.04673730581998825,
      -0.21079318225383759,
      -0.06755607575178146
    ],
    [
      0.4266771972179413,
      -0.16502785682678223,
      -0.30314376950263977,
      -0.1467902809381485,
      -0.1306915432214737,
      0.2519529461860657,
      0.0477287732064724,
      0.22107268869876862,
      0.2867397367954254,
      0.07020063698291779,
      0.24564413726329803,
      -0.14357540011405945
    ],
    [
      -0.3525004982948303,
      -0.3027697205543518,
      0.16422326862812042,
      -0.028155531734228134,
      -0.2501673698425293,
      0.0007716175750829279,
      -0.2567845284938812,
      0.14499220252037048,
      -0.03976622596383095,
      -0.08787164837121964,
      -0.14659303426742554,
      0.09622006863355637
    ],
    [
      -0.2983365058898926,
      -0.22631822526454926,
      -0.12755386531352997,
      0.4389270842075348,
      0.45194268226623535,
      -0.009139527566730976,
      -0.13149937987327576,
      0.42260316014289856,
      0.10836168378591537,
      0.16447176039218903,
      0.0837826356291771,
      -0.09166695922613144
    ],
    [
      -0.6032119393348694,
      0.2141176164150238,
      -0.12465913593769073,
      -0.2777212858200073,
      -0.24531246721744537,
      -0.16584952175617218,
      -0.2793049216270447,
      0.19890443980693817,
      0.08195584267377853,
      0.14039519429206848,
      0.09344750642776489,
      0.21019284427165985
    ],
    [
      0.06130645424127579,
      0.10929460823535919,
      -0.3070453107357025,
      -0.062444835901260376,
      -0.3389548361301422,
      -0.00479739299044013,
      -0.1266266256570816,
      -0.2628679573535919,
      -0.30396220088005066,
      0.05002233013510704,
      -0.2524338364601135,
      0.29508838057518005
    ],
    [
      0.11666996031999588,
      -0.017900565639138222,
      0.2154732346534729,
      -0.25423118472099304,
      0.48971500992774963,
      0.0243031308054924,
      0.2627941071987152,
      -0.2221592217683792,
      -0.03894931077957153,
      0.005056500434875488,
      0.2806241810321808,
      -0.006344279740005732
    ],
    [
      -0.01957937516272068,
      -0.17209987342357635,
      -0.12439453601837158,
      0.01526758074760437,
      -0.04511687532067299,
      -0.3533128798007965,
      0.2409825623035431,
      0.2925841212272644,
      -0.26569366455078125,
      0.03990833833813667,
      -0.2890859842300415,
      0.12720774114131927
    ],
    [
      0.09188584238290787,
      0.14274173974990845,
      0.17766353487968445,
      0.20406992733478546,
      -0.26867154240608215,
      0.5002197027206421,
      -0.18943151831626892,
      -0.332465797662735,
      0.19247809052467346,
      -0.05620863288640976,
      0.15437065064907074,
      0.18397945165634155
    ],
    [
      -0.23945531249046326,
      0.3712148666381836,
      -0.068332239985466,
      0.06712650507688522,
      -0.09317194670438766,
      0.23581798374652863,
      -0.22665350139141083,
      -0.2962562143802643,
      -0.07579772174358368,
      0.34716564416885376,
      0.373708039522171,
      0.22127889096736908
    ],
    [
      0.20259758830070496,
      0.22502665221691132,
      -0.07989490777254105,
      -0.1981581151485443,
      0.09200207144021988,
      0.06339851021766663,
      -0.12920667231082916,
      -0.34861019253730774,
      0.17779292166233063,
      -0.16030171513557434,
      0.3691548705101013,
      -0.11422314494848251
    ],
    [
      -0.31897491216659546,
      0.23597383499145508,
      -0.25958946347236633,
      -0.23933154344558716,
      0.06510483473539352,
      0.24732188880443573,
      -0.23083284497261047,
      -0.1442003697156906,
      0.15363003313541412,
      0.31435129046440125,
      -0.020380370318889618,
      -0.28069910407066345
    ],
    [
      -0.3608653247356415,
      -0.20395435392856598,
      -0.2724692225456238,
      0.13046090304851532,
      -0.28123897314071655,
      0.003089763456955552,
      0.13841256499290466,
      0.05785015970468521,
      -0.26601552963256836,
      0.17106349766254425,
      0.11139222979545593,
      0.12307130545377731
    ],
    [
      -0.27555540204048157,
      -0.2864873707294464,
      0.29592132568359375,
      -0.08842463791370392,
      -0.16783669590950012,
      -0.010139775462448597,
      0.11363394558429718,
      0.3263469934463501,
      -0.1768307089805603,
      0.28128620982170105,
      -0.3684829771518707,
      0.022735919803380966
    ],
    [
      0.08793960511684418,
      -0.29428189992904663,
      -0.26882225275039673,
      -0.06084667518734932,
      0.3397454023361206,
      0.06404471397399902,
      0.31493619084358215,
      0.2233266681432724,
      -0.048893872648477554,
      0.19074447453022003,
      -0.36723196506500244,
      -0.2939063310623169
    ],
    [
      0.5655002593994141,
      0.2596385180950165,
      -0.15548837184906006,
      0.04448961839079857,
      0.12212135642766953,
      0.5137763023376465,
      0.08727248758077621,
      -0.0360320545732975,
      0.13093437254428864,
      0.019995927810668945,
      0.00958471093326807,
      0.21868209540843964
    ],
    [
      -0.034454941749572754,
      -0.18688969314098358,
      -0.19646739959716797,
      0.18032240867614746,
      0.23075668513774872,
      -0.29156702756881714,
      -0.3209567666053772,
      0.06861099600791931,
      -0.26297205686569214,
      0.23656129837036133,
      -0.1417168527841568,
      -0.26345762610435486
    ],
    [
      0.3109073042869568,
      -0.24702119827270508,
      -0.15899474918842316,
      -0.2558234632015228,
      -0.2839794158935547,
      -0.3536556363105774,
      -0.32836225628852844,
      -0.2402932047843933,
      -0.3298493027687073,
      0.06731417030096054,
      0.13346652686595917,
      -0.07855911552906036
    ],
    [
      -0.13442248106002808,
      0.0033428475726395845,
      0.27695950865745544,
      0.25932788848876953,
      -0.3371660113334656,
      -0.2352290153503418,
      -0.19442680478096008,
      -0.18508954346179962,
      0.05260879918932915,
      -0.061844296753406525,
      -0.3328979015350342,
      -0.09334214776754379
    ],
    [
      -0.1951495260000229,
      -0.3513081967830658,
      0.17995379865169525,
      -0.37159132957458496,
      0.2426702380180359,
      -0.45105287432670593,
      0.23161670565605164,
      0.2529274523258209,
      0.23504337668418884,
      0.18839743733406067,
      0.28122514486312866,
      0.14936290681362152
    ],
    [
      0.2058490812778473,
      -0.271316796541214,
      0.023105191066861153,
      0.007850891910493374,
      0.25827130675315857,
      -0.027890685945749283,
      -0.08547427505254745,
      0.1008988618850708,
      -0.17582009732723236,
      -0.2672463357448578,
      -0.01917560026049614,
      -0.06392738968133926
    ],
    [
      -0.28859734535217285,
      -0.11118067800998688,
      -0.1062789112329483,
      -0.13088442385196686,
      -0.09785976260900497,
      0.06699121743440628,
      -0.15425175428390503,
      0.3228417932987213,
      0.2405320256948471,
      -0.03141620010137558,
      -0.12602896988391876,
      0.027910523116588593
    ],
    [
      0.3227613866329193,
      0.11092318594455719,
      0.20915865898132324,
      0.013017683289945126,
      0.07642790675163269,
      -0.09964631497859955,
      0.1711113601922989,
      -0.21629412472248077,
      0.19818581640720367,
      0.28892359137535095,
      -0.2826179563999176,
      0.07178553938865662
    ],
    [
      -0.33292779326438904,
      0.05637363716959953,
      -0.4624745547771454,
      0.20682688057422638,
      -0.4346141815185547,
      0.3205455243587494,
      0.15987473726272583,
      -0.024074982851743698,
      0.2885833978652954,
      0.2032410204410553,
      0.3767229914665222,
      -0.10307607054710388
    ],
    [
      0.15159010887145996,
      -0.2965446710586548,
      0.0741519033908844,
      -0.24505965411663055,
      0.051961787045001984,
      0.11540275067090988,
      -0.030463535338640213,
      0.005935476627200842,
      0.27829959988594055,
      0.2221621870994568,
      -0.023479817435145378,
      0.05896107852458954
    ],
    [
      0.45289990305900574,
      -0.24579815566539764,
      -0.23561327159404755,
      -0.27017131447792053,
      0.1784723550081253,
      0.03991027548909187,
      0.21367403864860535,
      0.13939915597438812,
      0.017524560913443565,
      0.3238075077533722,
      0.1956092268228531,
      -0.14038608968257904
    ],
    [
      -0.04307359457015991,
      -0.14028479158878326,
      -0.2642209231853485,
      -0.2716725468635559,
      0.2958618998527527,
      -0.0019780066795647144,
      -0.08810269832611084,
      0.17199862003326416,
      0.09792816638946533,
      0.3518810570240021,
      0.2232704758644104,
      0.02902337908744812
    ]
  ],
  "b1": [
    -0.03151210397481918,
    -0.03885027766227722,
    -0.0018439448904246092,
    -0.007208060007542372,
    0.12649056315422058,
    0.0,
    0.06813345849514008,
    0.0,
    0.1761234849691391,
    0.22708383202552795,
    -0.022440455853939056,
    -0.07644014060497284,
    0.0,
    -0.11633392423391342,
    0.13715088367462158,
    0.08071362972259521,
    -0.04452694207429886,
    -0.08874272555112839,
    -0.038589298725128174,
    -0.02354545146226883,
    -0.12402763217687607,
    -0.0034004966728389263,
    0.0,
    0.0,
    0.10219411551952362,
    -0.005698652472347021,
    0.004447036888450384,
    -0.02909374237060547,
    0.11078116297721863,
    -0.0077312965877354145,
    0.040871694684028625,
    0.040631044656038284
  ],
  "W2": [
    [
      -0.09775268286466599,
      0.35196101665496826,
      0.15371663868427277,
      0.3328584134578705,
      -0.26290109753608704,
      0.2478647381067276,
      0.07708636671304703,
      -0.2673417329788208,
      0.092946857213974,
      0.140745609998703,
      -0.3448820412158966,
      -0.02323160320520401,
      0.23009219765663147,
      -0.1638479083776474,
      -0.02389461174607277,
      -0.058229442685842514,
      -0.14336749911308289,
      0.29570749402046204,
      0.1995858997106552,
      -0.2753286361694336,
      0.3325079381465912,
      0.2681483030319214,
      -0.1527998149394989,
      0.23822185397148132,
      -0.26398366689682007,
      0.3529874086380005,
      0.11395618319511414,
      0.11211381107568741,
      -0.3032304048538208,
      0.26709550619125366,
      -0.33461034297943115,
      -0.1727650910615921
    ],
    [
      -0.26616594195365906,
      0.24981363117694855,
      -0.2146727442741394,
      0.27123838663101196,
      0.11889510601758957,
      -0.32798248529434204,
      -0.47920849919319153,
      -0.31702572107315063,
      0.19500061869621277,
      0.2274162620306015,
      -0.1848243623971939,
      0.3129449486732483,
      -0.31308430433273315,
      0.14314043521881104,
      0.2748121917247772,
      0.1541784554719925,
      0.08939575403928757,
      0.23887181282043457,
      -0.31889599561691284,
      -0.20703691244125366,
      -0.3458353281021118,
      0.0038200130220502615,
      0.17337419092655182,
      0.0919322595000267,
      0.3627612292766571,
      -0.24290189146995544,
      0.15487441420555115,
      -0.20811069011688232,
      -0.2535236179828644,
      0.05055157095193863,
      0.27129366993904114,
      0.08666584640741348
    ],
    [
      -0.29847845435142517,
      0.1564195156097412,
      -0.32363590598106384,
      0.28266042470932007,
      0.16395269334316254,
      -0.23113352060317993,
      -0.2704741656780243,
      -0.22377580404281616,
      0.41782864928245544,
      -0.01693999022245407,
      0.20073258876800537,
      0.13788250088691711,
      0.05120382830500603,
      -0.23615291714668274,
      0.3356104791164398,
      -0.0880642905831337,
      0.03999840095639229,
      0.13482484221458435,
      0.10811343044042587,
      0.31356871128082275,
      -0.20740851759910583,
      0.006361603271216154,
      -0.06785793602466583,
      -0.018265467137098312,
      -0.18355853855609894,
      -0.25822311639785767,
      -0.15992054343223572,
      -0.10006271302700043,
      -0.06102951243519783,
      0.07455535978078842,
      0.09868305921554565,
      -0.03817512094974518
    ],
    [
      -0.060436051338911057,
      -0.12987694144248962,
      0.06230644881725311,
      -0.14244963228702545,
      -0.32042449712753296,
      -0.05769988149404526,
      -0.052433520555496216,
      -0.194035142660141,
      0.13720746338367462,
      0.10877569764852524,
      0.14290903508663177,
      0.13587690889835358,
      0.10778644680976868,
      -0.14052698016166687,
      0.23116524517536163,
      0.03924381360411644,
      -0.07165475934743881,
      0.09134101122617722,
      -0.09207768738269806,
      0.010176143608987331,
      0.1399095058441162,
      0.27366751432418823,
      0.297732412815094,
      0.0025688661262392998,
      0.1538500189781189,
      0.21267874538898468,
      -0.1330432891845703,
      0.2586653530597687,
      -0.002891158452257514,
      -0.29509449005126953,
      -0.3222801089286804,
      0.28244397044181824
    ],
    [
      -0.3625771403312683,
      -0.18326646089553833,
      -0.11734288930892944,
      -0.284015417098999,
      -0.1788218766450882,
      0.171609565615654,
      -0.37651327252388,
      0.23134654760360718,
      0.16599731147289276,
      0.022346390411257744,
      -0.24412257969379425,
      0.01659948192536831,
      -0.2689321041107178,
      -0.10149331390857697,
      0.3761998116970062,
      0.28330332040786743,
      0.2148226797580719,
      -0.09801945835351944,
      0.13105462491512299,
      0.14163127541542053,
      -0.21212103962898254,
      0.09937567263841629,
      -0.3459677994251251,
      -0.20572730898857117,
      0.004123857710510492,
      -0.23798789083957672,
      -0.2189205139875412,
      0.11792460829019547,
      0.42866358160972595,
      0.041039008647203445,
      0.21168914437294006,
      0.3503994941711426
    ],
    [
      -0.28107649087905884,
      -0.024157250300049782,
      -0.07579262554645538,
      -0.2996479868888855,
      0.17373555898666382,
      -0.04682529717683792,
      -0.020516932010650635,
      -0.24701151251792908,
      -0.22081473469734192,
      0.33775240182876587,
      -0.3214658796787262,
      -0.1880480796098709,
      -0.14703625440597534,
      -0.004218871705234051,
      0.10068880766630173,
      -0.008579066023230553,
      -0.28346383571624756,
      -0.1654055416584015,
      0.2419414073228836,
      0.09746219217777252,
      0.06417139619588852,
      0.12033377587795258,
      0.1859005093574524,
      -0.31246447563171387,
      -0.06463520973920822,
      0.028058994561433792,
      -0.10885746777057648,
      0.20763759315013885,
      0.02961944416165352,
      0.19746077060699463,
      0.25250083208084106,
      0.02843162603676319
    ],
    [
      0.2204073965549469,
      0.08904226124286652,
      0.24647089838981628,
      -0.16450588405132294,
      -0.028906475752592087,
      0.02221095934510231,
      -0.39528435468673706,
      -0.07173421233892441,
      0.310683012008667,
      0.19968000054359436,
      -0.227126806974411,
      -0.10347986221313477,
      -0.21806959807872772,
      -0.38534215092658997,
      0.3304728865623474,
      -0.12022580951452255,
      -0.15123258531093597,
      0.10932216793298721,
      -0.345772385597229,
      -0.15752901136875153,
      -0.03398792818188667,
      0.09478073567152023,
      0.3406882584095001,
      0.08510575443506241,
      0.059981148689985275,
      0.18533949553966522,
      0.2913004755973816,
      0.05092895030975342,
      0.33756905794143677,
      0.13253679871559143,
      0.18925520777702332,
      -0.2548098564147949
    ],
    [
      0.2163960039615631,
      -0.022403396666049957,
      0.038840152323246,
      0.16569119691848755,
      0.36941292881965637,
      0.342648446559906,
      -0.029928255826234818,
      0.16528868675231934,
      0.20929522812366486,
      -0.21346122026443481,
      -0.2667948305606842,
      -0.3002904951572418,
      0.19611120223999023,
      0.05255942791700363,
      0.3087155222892761,
      0.08704891055822372,
      0.34374314546585083,
      -0.09918469190597534,
      0.2069539576768875,
      -0.2922913134098053,
      0.21995456516742706,
      0.2134714275598526,
      0.300309419631958,
      0.22810068726539612,
      -0.3400939106941223,
      -0.09005650877952576,
      -0.3279455006122589,
      -0.16009126603603363,
      0.09998061507940292,
      0.21099846065044403,
      0.2526801526546478,
      0.2574196755886078
    ],
    [
      0.16156388819217682,
      0.1635289192199707,
      -0.31893080472946167,
      -0.19830381870269775,
      0.085213802754879,
      0.25323283672332764,
      -0.34923169016838074,
      0.010344507172703743,
      0.07529196888208389,
      -0.3556203842163086,
      -0.06972382217645645,
      0.24762411415576935,
      0.12134858220815659,
      -0.19641855359077454,
      0.21718209981918335,
      -0.12709949910640717,
      0.24942010641098022,
      -0.1414741575717926,
      0.06040031090378761,
      -0.07358268648386002,
      -0.17526108026504517,
      0.2732306122779846,
      -0.2209046334028244,
      -0.2935825288295746,
      -0.19532246887683868,
      0.15368153154850006,
      0.21814951300621033,
      0.3142622709274292,
      -0.15294098854064941,
      -0.07618582993745804,
      -0.2566381096839905,
      0.023440001532435417
    ],
    [
      0.3516461253166199,
      0.12872099876403809,
      0.0673256441950798,
      -0.07621502876281738,
      0.2936636507511139,
      -0.0021802957635372877,
      -0.25818586349487305,
      -0.09519179910421371,
      -0.3137500286102295,
      -0.21755115687847137,
      -0.3410652279853821,
      -0.041196249425411224,
      0.09513433277606964,
      -0.11486099660396576,
      -0.06159323453903198,
      0.3198740482330322,
      0.1777350753545761,
      0.027634689584374428,
      -0.15302157402038574,
      0.2807033956050873,
      -0.189485102891922,
      -0.12351910769939423,
      0.28925248980522156,
      0.020889388397336006,
      0.14814403653144836,
      0.06400759518146515,
      0.1080683022737503,
      -0.14810669422149658,
      -0.18540406227111816,
      -0.12816423177719116,
      -0.24287694692611694,
      0.25709056854248047
    ],
    [
      -0.19097290933132172,
      0.08323732018470764,
      0.20517389476299286,
      0.12160725891590118,
      -0.10068116337060928,
      -0.01678861863911152,
      0.2737530767917633,
      0.12345906347036362,
      0.21347448229789734,
      0.47643211483955383,
      0.20420025289058685,
      -0.2451959103345871,
      0.04396134614944458,
      -0.3072305917739868,
      0.2180500030517578,
      0.2699594795703888,
      0.010278812609612942,
      -0.011738410219550133,
      -0.3263102173805237,
      0.32467684149742126,
      -0.4471089243888855,
      -0.3241804540157318,
      -0.17955802381038666,
      -0.3072163760662079,
      0.09657469391822815,
      0.011827871203422546,
      -0.1166766807436943,
      -0.4280862510204315,
      -0.1737075001001358,
      -0.10867507755756378,
      -0.35059964656829834,
      0.19207462668418884
    ],
    [
      -0.2070964276790619,
      -0.13941045105457306,
      -0.07486438006162643,
      -0.05888337269425392,
      -0.35237908363342285,
      -0.2743076682090759,
      0.2566452622413635,
      -0.3526814877986908,
      0.006575213745236397,
      -0.00718960864469409,
      -0.11802025139331818,
      -0.04834960028529167,
      0.1984008252620697,
      0.2415657788515091,
      -0.16919879615306854,
      -0.12508605420589447,
      -0.182062029838562,
      -0.014227954670786858,
      0.1295924335718155,
      -0.19215348362922668,
      -0.11956267058849335,
      0.30433106422424316,
      -0.3192097246646881,
      -0.027740078046917915,
      0.15073621273040771,
      -0.24716633558273315,
      -0.32005468010902405,
      -0.25553449988365173,
      0.2967585027217865,
      -0.3469371497631073,
      -0.2203308790922165,
      -0.3311341404914856
    ],
    [
      -0.27824318408966064,
      0.08882701396942139,
      -0.18268810212612152,
      0.05206853523850441,
      0.06160521134734154,
      0.24708808958530426,
      -0.35874661803245544,
      0.2498699426651001,
      0.09366897493600845,
      -0.23883460462093353,
      0.19299587607383728,
      0.25504207611083984,
      -0.17376196384429932,
      0.29074349999427795,
      -0.03952346742153168,
      0.06645868718624115,
      0.3409372866153717,
      -0.09774109721183777,
      0.22167272865772247,
      -0.12853272259235382,
      0.201020285487175,
      0.07116856426000595,
      -0.20056681334972382,
      -0.06079273298382759,
      -0.12327999621629715,
      -0.2982531785964966,
      -0.3324401378631592,
      -0.10887488722801208,
      -0.34716564416885376,
      -0.2404337227344513,
      0.15064004063606262,
      0.14143267273902893
    ],
    [
      0.11842413246631622,
      -0.11786354333162308,
      0.2747175395488739,
      0.006003404501825571,
      -0.30981752276420593,
      -0.2519289553165436,
      0.07685942202806473,
      -0.23126356303691864,
      -0.03794684261083603,
      0.4973834455013275,
      -0.349931925535202,
      -0.37487661838531494,
      0.34866344928741455,
      0.04467922821640968,
      -0.1786043643951416,
      0.2167963981628418,
      0.2765926718711853,
      0.06359855830669403,
      0.08644010871648788,
      -0.1629156917333603,
      -0.4641079306602478,
      0.06679630279541016,
      -0.14512999355793,
      0.11569755524396896,
      0.2970464825630188,
      -0.34071245789527893,
      0.08026723563671112,
      -0.29988133907318115,
      0.3502212166786194,
      -0.18898731470108032,
      0.046350400894880295,
      0.07690306007862091
    ],
    [
      -0.01578257977962494,
      0.11055116355419159,
      0.16237594187259674,
      0.11477750539779663,
      0.2142527550458908,
      0.34182748198509216,
      0.19344229996204376,
      0.010311774909496307,
      -0.4280978739261627,
      0.1384536772966385,
      0.013760312460362911,
      -0.10706643015146255,
      -0.2870344817638397,
      0.4073363244533539,
      -0.037226565182209015,
      0.2740970849990845,
      -0.19504226744174957,
      0.3046393394470215,
      -0.23444794118404388,
      -0.21426737308502197,
      0.48939839005470276,
      0.2912140190601349,
      -0.20354251563549042,
      -0.02135399729013443,
      0.06335881352424622,
      0.26678505539894104,
      -0.08056023716926575,
      0.08719202131032944,
      0.2792786657810211,
      0.3180925250053406,
      0.33842146396636963,
      0.06723897904157639
    ],
    [
      -0.23193195462226868,
      0.2887985408306122,
      0.2586477994918823,
      0.24142669141292572,
      -0.26261579990386963,
      -0.2090226262807846,
      0.21139448881149292,
      -0.3371908664703369,
      0.36703911423683167,
      -0.14724783599376678,
      0.15451455116271973,
      0.2847019135951996,
      -0.07450792193412781,
      -0.11203593015670776,
      0.06052757799625397,
      0.09853709489107132,
      -0.06876832246780396,
      0.04641289636492729,
      0.3084765374660492,
      -0.021613046526908875,
      -0.11277803778648376,
      -0.08674466609954834,
      -0.07487767189741135,
      -0.2608455419540405,
      -0.24276599287986755,
      0.13038572669029236,
      -0.12132158875465393,
      0.4026046693325043,
      -0.20908881723880768,
      -0.26241081953048706,
      0.21013487875461578,
      0.2684211730957031
    ]
  ],
  "b2": [
    0.0008779693744145334,
    0.09295467287302017,
    0.12768368422985077,
    0.17267923057079315,
    0.04703465476632118,
    0.0950235053896904,
    0.14034496247768402,
    -0.03133358806371689,
    -0.11241757124662399,
    -0.031618572771549225,
    0.2334485799074173,
    0.0021518294233828783,
    -0.004788597580045462,
    0.14754092693328857,
    -0.032844606786966324,
    -0.05592511221766472
  ],
  "W3": [
    [
      -0.24968387186527252,
      -0.4828784763813019,
      -0.38757240772247314,
      -0.0650658831000328,
      0.015568343922495842,
      -0.19774013757705688,
      -0.5005446672439575,
      0.1378258764743805,
      0.4945375323295593,
      0.16172578930854797,
      -0.11227893084287643,
      -0.42651697993278503,
      -0.28442710638046265,
      -0.27833959460258484,
      0.5887388586997986,
      0.3715485632419586
    ],
    [
      0.43922606110572815,
      0.5416690111160278,
      0.5221278071403503,
      0.5614357590675354,
      -0.5250387191772461,
      -0.4613379240036011,
      -0.22949910163879395,
      -0.019706204533576965,
      -0.43126392364501953,
      0.3851204216480255,
      0.0808626338839531,
      0.04647181183099747,
      -0.3672707974910736,
      -0.3906027674674988,
      -0.5483323335647583,
      0.4948965907096863
    ],
    [
      0.07988158613443375,
      0.4844546318054199,
      -0.17138700187206268,
      -0.06427982449531555,
      0.005271605681627989,
      0.2942751944065094,
      0.40248310565948486,
      -0.350730299949646,
      0.4895404577255249,
      -0.41152533888816833,
      0.5657280087471008,
      -0.4377064108848572,
      -0.24650198221206665,
      0.5642771124839783,
      -0.4623076617717743,
      -0.11902032047510147
    ],
    [
      -0.06854450702667236,
      -0.06182384118437767,
      0.2588444948196411,
      0.47128140926361084,
      0.4717061519622803,
      -0.1499384492635727,
      0.155259370803833,
      -0.40033388137817383,
      -0.272002249956131,
      -0.36621642112731934,
      0.6969344615936279,
      0.4250694215297699,
      0.3071136474609375,
      0.2846609354019165,
      -0.2269243448972702,
      -0.09105633199214935
    ]
  ],
  "b3": [
    -0.0005852350150234997,
    -0.07909275591373444,
    0.19023942947387695,
    0.10417450219392776
  ]
}