{
  "W1": [
    [
      0.20232994854450226,
      -0.04514126479625702,
      0.26484212279319763,
      0.14576594531536102,
      -0.299719899892807,
      0.3512703776359558,
      0.19286444783210754,
      0.2112724930047989,
      -0.2746562957763672,
      -0.0366424135863781,
      -0.09542198479175568,
      0.31518682837486267
    ],
    [
      0.10625143349170685,
      0.2383752465248108,
      -0.04179138317704201,
      -0.20144756138324738,
      0.040313538163900375,
      -0.3221423029899597,
      0.24197165668010712,
      0.09724060446023941,
      0.19061042368412018,
      -0.10743968933820724,
      0.3476335406303406,
      0.2903392016887665
    ],
    [
      0.205599844455719,
      -0.22552426159381866,
      -0.024578167125582695,
      -0.3369232416152954,
      -0.255324125289917,
      0.13519060611724854,
      0.18076883256435394,
      0.3452788293361664,
      -0.12863649427890778,
      -0.09567184746265411,
      -0.02248452417552471,
      -0.229340597987175
    ],
    [
      -0.27332109212875366,
      -0.01794310100376606,
      -0.20169080793857574,
      0.12541595101356506,
      -0.04641638323664665,
      0.24569913744926453,
      0.14790557324886322,
      -0.1385764181613922,
      0.2453901320695877,
      0.2250833958387375,
      -0.08310272544622421,
      -0.15633004903793335
    ],
    [
      0.1347818672657013,
      -0.26606041193008423,
      -0.2216324806213379,
      -0.3638370633125305,
      0.21190769970417023,
      0.12175042927265167,
      0.15152467787265778,
      0.20733213424682617,
      -0.03034271113574505,
      0.050768736749887466,
      -0.2660275399684906,
      -0.28468841314315796
    ],
    [
      0.12437383085489273,
      -0.021346867084503174,
      0.04818005859851837,
      0.19571462273597717,
      0.09949607402086258,
      0.03957100957632065,
      0.043727386742830276,
      -0.14479245245456696,
      -0.3465139865875244,
      -0.04673730581998825,
      -0.21079318225383759,
      -0.06755607575178146
    ],
    [
      0.2610054612159729,
      -0.19649870693683624,
      -0.32621505856513977,
      -0.16145870089530945,
      -0.1524411141872406,
      0.11958327144384384,
      0.0421210378408432,
      0.2096727192401886,
      0.12135358899831772,
      -0.06913788616657257,
      0.23191942274570465,
      -0.24595679342746735
    ],
    [
      -0.3525004982948303,
      -0.3027697205543518,
      0.16422326862812042,
      -0.028155531734228134,
      -0.2501673698425293,
      0.0007716175750829279,
      -0.2567845284938812,
      0.14499220252037048,
      -0.03976622596383095,
      -0.08787164837121964,
      -0.14659303426742554,
      0.09622006863355637
    ],
    [
      -0.10205814987421036,
      -0.3045407235622406,
      -0.28212133049964905,
      0.34113404154777527,
      0.3017568290233612,
      0.14749349653720856,
      -0.1729164868593216,
      0.346509724855423,
      0.20587117969989777,
      0.16018402576446533,
      -0.03739900887012482,
      -0.16821075975894928
    ],
    [
      -0.2980850338935852,
      0.29734158515930176,
      -0.032661374658346176,
      -0.21981921792030334,
      -0.1433105319738388,
      0.0585075281560421,
      -0.2387191206216812,
      0.2633771002292633,
      0.1909293234348297,
      0.16208413243293762,
      -0.05015261471271515,
      0.09402380883693695
    ],
    [
      0.06211046501994133,
      0.11066904664039612,
      -0.3069082200527191,
      -0.062180355191230774,
      -0.33854037523269653,
      -0.004438074305653572,
      -0.12565581500530243,
      -0.26253628730773926,
      -0.2929063141345978,
      0.06472980976104736,
      -0.243283212184906,
      0.31397202610969543
    ],
    [
      0.05986762046813965,
      -0.11309414356946945,
      0.06714554131031036,
      -0.3524326980113983,
      0.33866843581199646,
      -0.013069777749478817,
      0.20881380140781403,
      -0.3081743121147156,
      -0.009853475727140903,
      -0.006863339338451624,
      0.3233562707901001,
      0.052974678575992584
    ],
    [
      -0.01957937516272068,
      -0.17209987342357635,
      -0.12439453601837158,
      0.01526758074760437,
      -0.04511687532067299,
      -0.3533128798007965,
      0.2409825623035431,
      0.2925841212272644,
      -0.26569366455078125,
      0.03990833833813667,
      -0.2890859842300415,
      0.12720774114131927
    ],
    [
      -0.16156956553459167,
      0.1177414208650589,
      0.1676466315984726,
      0.1984093189239502,
      -0.28970250487327576,
      0.3072451055049896,
      -0.19925017654895782,
      -0.34164348244667053,
      0.04051123186945915,
      -0.09533020853996277,
      0.2435658723115921,
      0.22765879333019257
    ],
    [
      -0.1350518763065338,
      0.3344883620738983,
      -0.15441741049289703,
      0.011120426468551159,
      -0.1802317202091217,
      0.32203951478004456,
      -0.24770353734493256,
      -0.3361057937145233,
      -0.047933999449014664,
      0.36364346742630005,
      0.28927284479141235,
      0.18360918760299683
    ],
    [
      0.28861936926841736,
      0.29057958722114563,
      0.0139278220012784,
      -0.1359454095363617,
      0.20089448988437653,
      0.11939475685358047,
      -0.09330995380878448,
      -0.29950621724128723,
      0.1822662055492401,
      -0.17543452978134155,
      0.3226079046726227,
      -0.19130590558052063
    ],
    [
      -0.2786117196083069,
      0.2445429116487503,
      -0.2560665011405945,
      -0.23687605559825897,
      0.07339905947446823,
      0.2766323983669281,
      -0.2241978645324707,
      -0.14008525013923645,
      0.20487704873085022,
      0.3484669029712677,
      0.0005474023055285215,
      -0.26299911737442017
    ],
    [
      -0.3589818477630615,
      -0.1996622532606125,
      -0.27191731333732605,
      0.1312096267938614,
      -0.2792952060699463,
      0.004674964118748903,
      0.1434723138809204,
      0.059908587485551834,
      -0.22173038125038147,
      0.2246108502149582,
      0.15908871591091156,
      0.17650137841701508
    ],
    [
      -0.27248191833496094,
      -0.27787622809410095,
      0.31577587127685547,
      -0.07564351707696915,
      -0.14700913429260254,
      -0.008431240916252136,
      0.12028319388628006,
      0.3365000784397125,
      -0.1577199101448059,
      0.3137418031692505,
      -0.35091450810432434,
      0.040766455233097076
    ],
    [
      0.09894717484712601,
      -0.29106405377388,
      -0.26562681794166565,
      -0.05973803251981735,
      0.34433507919311523,
      0.07093212753534317,
      0.31980884075164795,
      0.2247854322195053,
      -0.02409028448164463,
      0.21031174063682556,
      -0.3561011254787445,
      -0.2886662781238556
    ],
    [
      0.24329915642738342,
      0.21921394765377045,
      -0.19745789468288422,
      0.022724848240613937,
      0.07829787582159042,
      0.27159321308135986,
      0.07614967972040176,
      -0.06457017362117767,
      -0.09292124211788177,
      -0.054739706218242645,
      0.11220850050449371,
      0.271409809589386
    ],
    [
      -0.03404941037297249,
      -0.1862328201532364,
      -0.19448773562908173,
      0.18169358372688293,
      0.23380152881145477,
      -0.29152145981788635,
      -0.3201175034046173,
      0.06974387913942337,
      -0.2613183856010437,
      0.23978039622306824,
      -0.1400771290063858,
      -0.26301801204681396
    ],
    [
      0.3109073042869568,
      -0.24702119827270508,
      -0.15899474918842316,
      -0.2558234632015228,
      -0.2839794158935547,
      -0.3536556363105774,
      -0.32836225628852844,
      -0.2402932047843933,
      -0.3298493027687073,
      0.06731417030096054,
      0.13346652686595917,
      -0.07855911552906036
    ],
    [
      -0.13442248106002808,
      0.0033428475726395845,
      0.27695950865745544,
      0.25932788848876953,
      -0.3371660113334656,
      -0.2352290153503418,
      -0.19442680478096008,
      -0.18508954346179962,
      0.05260879918932915,
      -0.061844296753406525,
      -0.3328979015350342,
      -0.09334214776754379
    ],
    [
      0.01754271611571312,
      -0.2941848039627075,
      0.24627546966075897,
      -0.33089810609817505,
      0.3137665092945099,
      -0.2960745692253113,
      0.2537469267845154,
      0.2973790466785431,
      0.35418641567230225,
      0.22306089103221893,
      0.2064078450202942,
      0.10523087531328201
    ],
    [
      0.20605246722698212,
      -0.2699010670185089,
      0.026638010516762733,
      0.010504285804927349,
      0.26408451795578003,
      -0.02747448906302452,
      -0.08486703038215637,
      0.10307430475950241,
      -0.17247827351093292,
      -0.2660486698150635,
      -0.016338715329766273,
      -0.0613812692463398
    ],
    [
      -0.19751018285751343,
      -0.09784901142120361,
      -0.09867571294307709,
      -0.12740297615528107,
      -0.08902167528867722,
      0.13718055188655853,
      -0.1500166654586792,
      0.3315035402774811,
      0.3074933886528015,
      -0.014098582789301872,
      -0.12676365673542023,
      0.02617032639682293
    ],
    [
      0.25742897391319275,
      0.11269322037696838,
      0.22480826079845428,
      0.024167003110051155,
      0.09816617518663406,
      -0.15645745396614075,
      0.1734800934791565,
      -0.21978877484798431,
      0.14386795461177826,
      0.26640868186950684,
      -0.271710067987442,
      0.08447504043579102
    ],
    [
      -0.29904159903526306,
      0.1667020320892334,
      -0.30687209963798523,
      0.3219628930091858,
      -0.2677919864654541,
      0.3389055132865906,
      0.22221769392490387,
      0.06918874382972717,
      0.2087317407131195,
      0.2179567515850067,
      0.3294128179550171,
      -0.18213845789432526
    ],
    [
      0.06652545928955078,
      -0.29907599091529846,
      0.08579405397176743,
      -0.24276746809482574,
      0.04796920716762543,
      0.05349348112940788,
      -0.025121629238128662,
      0.0167146734893322,
      0.1949203461408615,
      0.2210068702697754,
      -0.005795234348624945,
      0.073554627597332
    ],
    [
      0.31848907470703125,
      -0.2808453440666199,
      -0.2827877700328827,
      -0.3044970631599426,
      0.11658976227045059,
      -0.06011175364255905,
      0.20259979367256165,
      0.12646277248859406,
      -0.1228666603565216,
      0.294213205575943,
      0.19389283657073975,
      -0.16947117447853088
    ],
    [
      -0.10030084103345871,
      -0.13704515993595123,
      -0.2528705596923828,
      -0.2601292133331299,
      0.3221014738082886,
      -0.045860908925533295,
      -0.08617401868104935,
      0.1696341335773468,
      0.03913797065615654,
      0.32211074233055115,
      0.20701637864112854,
      -0.015236586332321167
    ]
  ],
  "b1": [
    0.0,
    0.0,
    0.0,
    0.0,
    0.0,
    0.0,
    0.0,
    0.0,
    0.0,
    0.0,
    0.0,
    0.0,
    0.0,
    0.0,
    0.0,
    0.0,
    0.0,
    0.0,
    0.0,
    0.0,
    0.0,
    0.0,
    0.0,
    0.0,
    0.0,
    0.0,
    0.0,
    0.0,
    0.0,
    0.0,
    0.0,
    0.0
  ],
  "W2": [
    [
      -0.08742705732584,
      0.3441004753112793,
      0.15397973358631134,
      0.31904280185699463,
      -0.2697763741016388,
      0.2478647381067276,
      0.09692586958408356,
      -0.2673417329788208,
      0.062407828867435455,
      0.13159000873565674,
      -0.34485408663749695,
      -0.03230207785964012,
      0.23009219765663147,
      -0.14470301568508148,
      -0.029310932382941246,
      -0.040790073573589325,
      -0.1400584876537323,
      0.29588308930397034,
      0.19890491664409637,
      -0.27535557746887207,
      0.35145658254623413,
      0.2681349217891693,
      -0.1527998149394989,
      0.23822185397148132,
      -0.2783034145832062,
      0.3529203534126282,
      0.11715680360794067,
      0.1061544194817543,
      -0.289602130651474,
      0.2807449996471405,
      -0.33304765820503235,
      -0.18326224386692047
    ],
    [
      -0.25242164731025696,
      0.19570448994636536,
      -0.21340183913707733,
      0.290365070104599,
      0.11049889773130417,
      -0.32798248529434204,
      -0.34971392154693604,
      -0.31702572107315063,
      0.07490041106939316,
      0.2131798267364502,
      -0.18487107753753662,
      0.2470693588256836,
      -0.31308430433273315,
      0.2128135859966278,
      0.3024970591068268,
      0.1924096941947937,
      0.14009255170822144,
      0.23898810148239136,
      -0.3251621425151825,
      -0.2108718901872635,
      -0.2652190029621124,
      0.003203893778845668,
      0.17337419092655182,
      0.0919322595000267,
      0.24828718602657318,
      -0.24380123615264893,
      0.16590216755867004,
      -0.21705244481563568,
      -0.16209803521633148,
      0.14842502772808075,
      0.3395560681819916,
      0.07887323945760727
    ],
    [
      -0.31501585245132446,
      0.08224286139011383,
      -0.32360702753067017,
      0.27163204550743103,
      0.14819422364234924,
      -0.23113352060317993,
      -0.28869685530662537,
      -0.22377580404281616,
      0.33943048119544983,
      -0.029302051290869713,
      0.20087556540966034,
      0.09645526111125946,
      0.05120382830500603,
      -0.2509308159351349,
      0.31538692116737366,
      -0.14047196507453918,
      0.05516650155186653,
      0.14126291871070862,
      0.10552377253770828,
      0.31154730916023254,
      -0.24859116971492767,
      0.005906277801841497,
      -0.06785793602466583,
      -0.018265467137098312,
      -0.2692538797855377,
      -0.25873419642448425,
      -0.1569242924451828,
      -0.1380946934223175,
      -0.05098012834787369,
      0.07848004996776581,
      0.0951971635222435,
      -0.06235911324620247
    ],
    [
      -0.06450007855892181,
      -0.19966678321361542,
      0.06244194880127907,
      -0.12937161326408386,
      -0.3280552327632904,
      -0.05769988149404526,
      -0.018290961161255836,
      -0.194035142660141,
      0.05123549699783325,
      0.046507757157087326,
      0.14283710718154907,
      0.10461537539958954,
      0.10778644680976868,
      -0.1299562156200409,
      0.20324526727199554,
      0.034750327467918396,
      -0.04849465936422348,
      0.08910427987575531,
      -0.09853014349937439,
      0.009008006192743778,
      0.16737619042396545,
      0.27322810888290405,
      0.297732412815094,
      0.0025688661262392998,
      0.014336670748889446,
      0.21204039454460144,
      -0.13120317459106445,
      0.2385653555393219,
      -0.004142481368035078,
      -0.27163031697273254,
      -0.30259987711906433,
      0.24182571470737457
    ],
    [
      -0.31426092982292175,
      -0.15513114631175995,
      -0.1172877699136734,
      -0.231227844953537,
      -0.13159726560115814,
      0.171609565615654,
      -0.34317106008529663,
      0.23134654760360718,
      0.2521175146102905,
      -0.09032470732927322,
      -0.24493266642093658,
      0.07130493968725204,
      -0.2689321041107178,
      -0.09551643580198288,
      0.32415837049484253,
      0.35034629702568054,
      0.19240722060203552,
      -0.1336704045534134,
      0.13269923627376556,
      0.14524424076080322,
      -0.07930789887905121,
      0.09962330758571625,
      -0.3459677994251251,
      -0.20572730898857117,
      0.01774010993540287,
      -0.23776373267173767,
      -0.23623952269554138,
      0.23780304193496704,
      0.3458692729473114,
      0.03957636281847954,
      0.23975850641727448,
      0.3467097878456116
    ],
    [
      -0.25342997908592224,
      -0.03659587725996971,
      -0.07596255838871002,
      -0.29695001244544983,
      0.18054570257663727,
      -0.04682529717683792,
      -0.02168913371860981,
      -0.24701151251792908,
      -0.22561892867088318,
      0.2878657281398773,
      -0.3219817280769348,
      -0.18890196084976196,
      -0.14703625440597534,
      -0.006931384094059467,
      0.061125967651605606,
      -0.0047447034157812595,
      -0.2940748631954193,
      -0.18125447630882263,
      0.24295367300510406,
      0.09728990495204926,
      0.10546430200338364,
      0.1203518733382225,
      0.1859005093574524,
      -0.31246447563171387,
      -0.09432211518287659,
      0.027950117364525795,
      -0.1142285168170929,
      0.24358335137367249,
      -0.012323097325861454,
      0.18994839489459991,
      0.24891255795955658,
      0.0033880900591611862
    ],
    [
      0.28959718346595764,
      0.06160593032836914,
      0.24768133461475372,
      -0.11271932721138,
      -0.0008365366375073791,
      0.02221095934510231,
      -0.2793215215206146,
      -0.07173421233892441,
      0.2951022982597351,
      0.09251236170530319,
      -0.2280372828245163,
      -0.11394627392292023,
      -0.21806959807872772,
      -0.33600080013275146,
      0.3022601902484894,
      -0.036622948944568634,
      -0.13609325885772705,
      0.06963388621807098,
      -0.34838128089904785,
      -0.1569620668888092,
      0.1435663402080536,
      0.09458951652050018,
      0.3406882584095001,
      0.08510575443506241,
      -0.015905749052762985,
      0.1848607361316681,
      0.28519588708877563,
      0.15605559945106506,
      0.3275398015975952,
      0.19940777122974396,
      0.25936779379844666,
      -0.27286961674690247
    ],
    [
      0.16434116661548615,
      -0.042363688349723816,
      0.03755005821585655,
      0.10896685719490051,
      0.3322094678878784,
      0.342648446559906,
      -0.14974524080753326,
      0.16528868675231934,
      0.1767650544643402,
      -0.1085459366440773,
      -0.26596423983573914,
      -0.3245995044708252,
      0.19611120223999023,
      -0.007283382583409548,
      0.3433287441730499,
      -0.02476750686764717,
      0.3379383385181427,
      -0.0625252053141594,
      0.2076646387577057,
      -0.2935771048069,
      0.039217352867126465,
      0.21358852088451385,
      0.300309419631958,
      0.22810068726539612,
      -0.32741114497184753,
      -0.0900130346417427,
      -0.3191183805465698,
      -0.27627915143966675,
      0.12395980209112167,
      0.1507963240146637,
      0.1935497522354126,
      0.2584168016910553
    ],
    [
      0.16930361092090607,
      0.21274834871292114,
      -0.31893080472946167,
      -0.18771199882030487,
      0.08619473874568939,
      0.25323283672332764,
      -0.3503713309764862,
      0.010344507172703743,
      0.1253611296415329,
      -0.3326178789138794,
      -0.06975215673446655,
      0.279756098985672,
      0.12134858220815659,
      -0.18550355732440948,
      0.24945393204689026,
      -0.10745801031589508,
      0.24985241889953613,
      -0.1421683132648468,
      0.06386606395244598,
      -0.07287437468767166,
      -0.15922273695468903,
      0.2733374834060669,
      -0.2209046334028244,
      -0.2935825288295746,
      -0.11177453398704529,
      0.1538941115140915,
      0.21738697588443756,
      0.3526648283004761,
      -0.14399376511573792,
      -0.06509487330913544,
      -0.2568061351776123,
      0.05294244736433029
    ],
    [
      0.3518422245979309,
      0.1420443207025528,
      0.0673256441950798,
      -0.07610654085874557,
      0.29366058111190796,
      -0.0021802957635372877,
      -0.25854164361953735,
      -0.09519179910421371,
      -0.3060593903064728,
      -0.21073263883590698,
      -0.34105968475341797,
      -0.033036086708307266,
      0.09513433277606964,
      -0.11080896109342575,
      -0.05629858747124672,
      0.3247099816799164,
      0.17816482484340668,
      0.028890004381537437,
      -0.15235260128974915,
      0.280719131231308,
      -0.18731462955474854,
      -0.12350133806467056,
      0.28925248980522156,
      0.020889388397336006,
      0.17134466767311096,
      0.06416626274585724,
      0.10849790275096893,
      -0.14185743033885956,
      -0.1828775703907013,
      -0.1255168616771698,
      -0.24363960325717926,
      0.26468023657798767
    ],
    [
      -0.15326756238937378,
      0.043479569256305695,
      0.20645709335803986,
      0.20069395005702972,
      -0.04356749355792999,
      -0.01678861863911152,
      0.3498069643974304,
      0.12345906347036362,
      0.22248297929763794,
      0.2846486270427704,
      0.20335672795772552,
      -0.22261181473731995,
      0.04396134614944458,
      -0.2815033495426178,
      0.1081322729587555,
      0.32198065519332886,
      0.009002928622066975,
      -0.047395605593919754,
      -0.3282087445259094,
      0.32510969042778015,
      -0.28071948885917664,
      -0.32450607419013977,
      -0.17955802381038666,
      -0.3072163760662079,
      -0.031736478209495544,
      0.011375793255865574,
      -0.13253305852413177,
      -0.3175188899040222,
      -0.2746400237083435,
      -0.08166773617267609,
      -0.31075331568717957,
      0.1401412934064865
    ],
    [
      -0.20716775953769684,
      -0.139956533908844,
      -0.07486438006162643,
      -0.05896589532494545,
      -0.35237908363342285,
      -0.2743076682090759,
      0.2565132975578308,
      -0.3526814877986908,
      0.005775192752480507,
      -0.007423202507197857,
      -0.11802025139331818,
      -0.04855912923812866,
      0.1984008252620697,
      0.24126745760440826,
      -0.16945916414260864,
      -0.12551821768283844,
      -0.1820921152830124,
      -0.01423872634768486,
      0.1295832246541977,
      -0.19215422868728638,
      -0.11968790739774704,
      0.3043278753757477,
      -0.3192097246646881,
      -0.027740078046917915,
      0.14959412813186646,
      -0.24716633558273315,
      -0.32005488872528076,
      -0.2558274269104004,
      0.2961527109146118,
      -0.3470057249069214,
      -0.22038964927196503,
      -0.33143261075019836
    ],
    [
      -0.27532655000686646,
      0.08495837450027466,
      -0.1826888769865036,
      0.04894030839204788,
      0.06377776712179184,
      0.24708808958530426,
      -0.35020071268081665,
      0.2498699426651001,
      0.08422991633415222,
      -0.23847636580467224,
      0.19299587607383728,
      0.25137048959732056,
      -0.17376196384429932,
      0.29613184928894043,
      -0.03220345824956894,
      0.07313213497400284,
      0.34269896149635315,
      -0.09790877997875214,
      0.22143709659576416,
      -0.1284112185239792,
      0.21157591044902802,
      0.07122963666915894,
      -0.20056681334972382,
      -0.06079273298382759,
      -0.1289510726928711,
      -0.2983224093914032,
      -0.332457035779953,
      -0.10855598747730255,
      -0.3400942087173462,
      -0.23653587698936462,
      0.15922865271568298,
      0.14714272320270538
    ],
    [
      0.16870181262493134,
      -0.12929223477840424,
      0.2757854163646698,
      0.06634821742773056,
      -0.26443931460380554,
      -0.2519289553165436,
      0.13653908669948578,
      -0.23126356303691864,
      0.005156718660145998,
      0.34773707389831543,
      -0.3507196009159088,
      -0.34182968735694885,
      0.34866344928741455,
      0.05984869226813316,
      -0.2638144791126251,
      0.2809350788593292,
      0.26896947622299194,
      0.025597557425498962,
      0.08611997216939926,
      -0.16038087010383606,
      -0.31783056259155273,
      0.06686940044164658,
      -0.14512999355793,
      0.11569755524396896,
      0.2377612441778183,
      -0.34071195125579834,
      0.06767985969781876,
      -0.1900133490562439,
      0.26437908411026,
      -0.17418549954891205,
      0.07832631468772888,
      0.03785908967256546
    ],
    [
      -0.07342137396335602,
      0.12559685111045837,
      0.1596432328224182,
      0.047332167625427246,
      0.18273212015628815,
      0.34182748198509216,
      -0.05708304047584534,
      0.010311774909496307,
      -0.34473586082458496,
      0.20932379364967346,
      0.014304817654192448,
      -0.06508109718561172,
      -0.2870344817638397,
      0.2755286991596222,
      -0.07424109429121017,
      0.12910468876361847,
      -0.2479299157857895,
      0.3263648748397827,
      -0.22737601399421692,
      -0.2124558985233307,
      0.2538392245769501,
      0.2917400598526001,
      -0.20354251563549042,
      -0.02135399729013443,
      0.16510583460330963,
      0.2675449848175049,
      -0.08552265912294388,
      0.012034595012664795,
      0.17091931402683258,
      0.16343781352043152,
      0.20008303225040436,
      0.04945067688822746
    ],
    [
      -0.2795793414115906,
      0.2856522500514984,
      0.25849881768226624,
      0.21078671514987946,
      -0.28293997049331665,
      -0.2090226262807846,
      0.17225146293640137,
      -0.3371908664703369,
      0.33886298537254333,
      -0.08687183260917664,
      0.15507738292217255,
      0.2740541398525238,
      -0.07450792193412781,
      -0.1278926432132721,
      0.07689158618450165,
      0.057268135249614716,
      -0.0642477348446846,
      0.07196561992168427,
      0.3078611195087433,
      -0.022881794720888138,
      -0.2144356667995453,
      -0.08682848513126373,
      -0.07487767189741135,
      -0.2608455419540405,
      -0.23838584125041962,
      0.13050509989261627,
      -0.11350636929273605,
      0.32166174054145813,
      -0.18130448460578918,
      -0.2836031913757324,
      0.17925480008125305,
      0.2694331705570221
    ]
  ],
  "b2": [
    0.0,
    0.0,
    0.0,
    0.0,
    0.0,
    0.0,
    0.0,
    0.0,
    0.0,
    0.0,
    0.0,
    0.0,
    0.0,
    0.0,
    0.0,
    0.0
  ],
  "W3": [
    [
      -0.24293021857738495,
      -0.3265751302242279,
      -0.34427082538604736,
      0.02384759485721588,
      -0.03576242923736572,
      -0.2636512219905853,
      -0.4982442259788513,
      -0.020183686167001724,
      0.5023279786109924,
      0.1666404753923416,
      -0.004922998603433371,
      -0.4264654517173767,
      -0.2715233862400055,
      -0.22451713681221008,
      0.2904980480670929,
      0.4118650555610657
    ],
    [
      0.44012629985809326,
      0.5307851433753967,
      0.5283628106117249,
      0.4959762692451477,
      -0.47008922696113586,
      -0.39690667390823364,
      -0.2141284942626953,
      0.058047760277986526,
      -0.44232550263404846,
      0.3783697485923767,
      0.12789930403232574,
      0.046407878398895264,
      -0.36696428060531616,
      -0.269974023103714,
      -0.3715377748012543,
      0.38476499915122986
    ],
    [
      0.09240910410881042,
      0.25750240683555603,
      -0.22347839176654816,
      -0.14129480719566345,
      -0.1052931547164917,
      0.2847033143043518,
      0.2983976900577545,
      -0.32106930017471313,
      0.4828460216522217,
      -0.4159846305847168,
      0.4339293837547302,
      -0.4377446472644806,
      -0.25826674699783325,
      0.37986063957214355,
      -0.3505569100379944,
      -0.09544511884450912
    ],
    [
      -0.05478138104081154,
      -0.3321886956691742,
      0.23026950657367706,
      0.3756628930568695,
      0.3767091929912567,
      -0.17614345252513885,
      0.022050533443689346,
      -0.280232310295105,
      -0.280398428440094,
      -0.37782540917396545,
      0.48201605677604675,
      0.4250204563140869,
      0.30063754320144653,
      0.017774812877178192,
      -0.05016753077507019,
      0.004408605862408876
    ]
  ],
  "b3": [
    -0.0012603345094248652,
    -0.0010829196544364095,
    -0.0011181449517607689,
    -0.0012347105657681823
  ]
}